Language model created by QuickLM on Sat Jul 28 12:52:17 EDT 2018
Copyright (c) 1996-2010 Carnegie Mellon University and Alexander I. Rudnicky

The model is in standard ARPA format, designed by Doug Paul while he was at MITRE.

The code that was used to produce this language model is available in Open Source.
Please visit http://www.speech.cs.cmu.edu/tools/ for more information

The (fixed) discount mass is 0.5. The backoffs are computed using the ratio method.
This model based on a corpus of 11 sentences and 27 words

\data\
ngram 1=27
ngram 2=40
ngram 3=37

\1-grams:
-1.1109 </s> -0.3010
-1.1109 <s> -0.2660
-2.1523 A -0.2980
-1.8513 ADD -0.2949
-2.1523 CLEAN -0.2726
-2.1523 CLEANING -0.2726
-1.6752 HOUSE -0.2660
-1.4533 IS -0.2693
-2.1523 IT -0.2660
-2.1523 JOKE -0.2660
-2.1523 LIKE -0.2660
-1.8513 LIST -0.2660
-2.1523 ME -0.2980
-2.1523 MILK -0.2949
-2.1523 ONIONS -0.2949
-2.1523 OUTSIDE -0.2660
-1.8513 SHOPPING -0.2949
-2.1523 STOP -0.2980
-2.1523 TELL -0.2980
-2.1523 TEMPERATURE -0.2980
-1.1980 THE -0.2693
-1.8513 TIME -0.2491
-1.8513 TO -0.2726
-2.1523 TOMORROW -0.2660
-2.1523 VACUUM -0.2726
-1.8513 WEATHER -0.2949
-1.4533 WHAT -0.2791

\2-grams:
-1.0414 <s> ADD 0.0000
-1.3424 <s> CLEAN 0.0000
-1.3424 <s> STOP 0.0000
-1.3424 <s> TELL 0.0000
-1.3424 <s> VACUUM 0.0000
-0.6435 <s> WHAT 0.0000
-0.3010 A JOKE 0.0000
-0.6021 ADD MILK 0.0000
-0.6021 ADD ONIONS 0.0000
-0.3010 CLEAN THE -0.2218
-0.3010 CLEANING THE -0.2218
-0.3010 HOUSE </s> -0.3010
-1.0000 IS IT 0.0000
-0.3979 IS THE -0.1919
-0.3010 IT </s> -0.3010
-0.3010 JOKE </s> -0.3010
-0.3010 LIKE </s> -0.3010
-0.3010 LIST </s> -0.3010
-0.3010 ME A 0.0000
-0.3010 MILK TO 0.0000
-0.3010 ONIONS TO 0.0000
-0.3010 OUTSIDE </s> -0.3010
-0.3010 SHOPPING LIST 0.0000
-0.3010 STOP CLEANING 0.0000
-0.3010 TELL ME 0.0000
-0.3010 TEMPERATURE OUTSIDE 0.0000
-0.7782 THE HOUSE 0.0000
-0.9542 THE SHOPPING 0.0000
-1.2553 THE TEMPERATURE 0.0000
-1.2553 THE TIME -0.1761
-0.9542 THE WEATHER 0.0000
-0.6021 TIME </s> -0.3010
-0.6021 TIME IS -0.2553
-0.3010 TO THE -0.2499
-0.3010 TOMORROW </s> -0.3010
-0.3010 VACUUM THE -0.2218
-0.6021 WEATHER LIKE 0.0000
-0.6021 WEATHER TOMORROW 0.0000
-0.3979 WHAT IS -0.0792
-1.0000 WHAT TIME -0.1761

\3-grams:
-0.6021 <s> ADD MILK
-0.6021 <s> ADD ONIONS
-0.3010 <s> CLEAN THE
-0.3010 <s> STOP CLEANING
-0.3010 <s> TELL ME
-0.3010 <s> VACUUM THE
-0.3979 <s> WHAT IS
-1.0000 <s> WHAT TIME
-0.3010 A JOKE </s>
-0.3010 ADD MILK TO
-0.3010 ADD ONIONS TO
-0.3010 CLEAN THE HOUSE
-0.3010 CLEANING THE HOUSE
-0.3010 IS IT </s>
-0.9031 IS THE TEMPERATURE
-0.9031 IS THE TIME
-0.6021 IS THE WEATHER
-0.3010 ME A JOKE
-0.3010 MILK TO THE
-0.3010 ONIONS TO THE
-0.3010 SHOPPING LIST </s>
-0.3010 STOP CLEANING THE
-0.3010 TELL ME A
-0.3010 TEMPERATURE OUTSIDE </s>
-0.3010 THE HOUSE </s>
-0.3010 THE SHOPPING LIST
-0.3010 THE TEMPERATURE OUTSIDE
-0.3010 THE TIME </s>
-0.6021 THE WEATHER LIKE
-0.6021 THE WEATHER TOMORROW
-0.3010 TIME IS IT
-0.3010 TO THE SHOPPING
-0.3010 VACUUM THE HOUSE
-0.3010 WEATHER LIKE </s>
-0.3010 WEATHER TOMORROW </s>
-0.3010 WHAT IS THE
-0.3010 WHAT TIME IS

\end\
