Language model created by QuickLM on Wed Aug 15 11:48:48 EDT 2018
Copyright (c) 1996-2010 Carnegie Mellon University and Alexander I. Rudnicky

The model is in standard ARPA format, designed by Doug Paul while he was at MITRE.

The code that was used to produce this language model is available in Open Source.
Please visit http://www.speech.cs.cmu.edu/tools/ for more information

The (fixed) discount mass is 0.5. The backoffs are computed using the ratio method.
This model based on a corpus of 12 sentences and 28 words

\data\
ngram 1=28
ngram 2=42
ngram 3=38

\1-grams:
-1.0911 </s> -0.3010
-1.0911 <s> -0.2643
-2.1703 A -0.2981
-1.8692 ADD -0.2951
-2.1703 CLEAN -0.2738
-2.1703 CLEANING -0.2738
-2.1703 COMPUTER -0.2643
-1.6931 HOUSE -0.2643
-1.4713 IS -0.2706
-2.1703 IT -0.2643
-2.1703 JOKE -0.2643
-2.1703 LIKE -0.2643
-1.8692 LIST -0.2643
-2.1703 ME -0.2981
-2.1703 MILK -0.2951
-2.1703 ONIONS -0.2951
-2.1703 OUTSIDE -0.2643
-1.8692 SHOPPING -0.2951
-2.1703 STOP -0.2981
-2.1703 TELL -0.2981
-2.1703 TEMPERATURE -0.2981
-1.2160 THE -0.2706
-1.8692 TIME -0.2480
-1.8692 TO -0.2738
-2.1703 TOMORROW -0.2643
-2.1703 VACUUM -0.2738
-1.8692 WEATHER -0.2951
-1.4713 WHAT -0.2800

\2-grams:
-1.0792 <s> ADD 0.0000
-1.3802 <s> CLEAN 0.0000
-1.3802 <s> COMPUTER 0.0000
-1.3802 <s> STOP 0.0000
-1.3802 <s> TELL 0.0000
-1.3802 <s> VACUUM 0.0000
-0.6812 <s> WHAT 0.0000
-0.3010 A JOKE 0.0000
-0.6021 ADD MILK 0.0000
-0.6021 ADD ONIONS 0.0000
-0.3010 CLEAN THE -0.2218
-0.3010 CLEANING THE -0.2218
-0.3010 COMPUTER </s> -0.3010
-0.3010 HOUSE </s> -0.3010
-1.0000 IS IT 0.0000
-0.3979 IS THE -0.1919
-0.3010 IT </s> -0.3010
-0.3010 JOKE </s> -0.3010
-0.3010 LIKE </s> -0.3010
-0.3010 LIST </s> -0.3010
-0.3010 ME A 0.0000
-0.3010 MILK TO 0.0000
-0.3010 ONIONS TO 0.0000
-0.3010 OUTSIDE </s> -0.3010
-0.3010 SHOPPING LIST 0.0000
-0.3010 STOP CLEANING 0.0000
-0.3010 TELL ME 0.0000
-0.3010 TEMPERATURE OUTSIDE 0.0000
-0.7782 THE HOUSE 0.0000
-0.9542 THE SHOPPING 0.0000
-1.2553 THE TEMPERATURE 0.0000
-1.2553 THE TIME -0.1761
-0.9542 THE WEATHER 0.0000
-0.6021 TIME </s> -0.3010
-0.6021 TIME IS -0.2553
-0.3010 TO THE -0.2499
-0.3010 TOMORROW </s> -0.3010
-0.3010 VACUUM THE -0.2218
-0.6021 WEATHER LIKE 0.0000
-0.6021 WEATHER TOMORROW 0.0000
-0.3979 WHAT IS -0.0792
-1.0000 WHAT TIME -0.1761

\3-grams:
-0.6021 <s> ADD MILK
-0.6021 <s> ADD ONIONS
-0.3010 <s> CLEAN THE
-0.3010 <s> COMPUTER </s>
-0.3010 <s> STOP CLEANING
-0.3010 <s> TELL ME
-0.3010 <s> VACUUM THE
-0.3979 <s> WHAT IS
-1.0000 <s> WHAT TIME
-0.3010 A JOKE </s>
-0.3010 ADD MILK TO
-0.3010 ADD ONIONS TO
-0.3010 CLEAN THE HOUSE
-0.3010 CLEANING THE HOUSE
-0.3010 IS IT </s>
-0.9031 IS THE TEMPERATURE
-0.9031 IS THE TIME
-0.6021 IS THE WEATHER
-0.3010 ME A JOKE
-0.3010 MILK TO THE
-0.3010 ONIONS TO THE
-0.3010 SHOPPING LIST </s>
-0.3010 STOP CLEANING THE
-0.3010 TELL ME A
-0.3010 TEMPERATURE OUTSIDE </s>
-0.3010 THE HOUSE </s>
-0.3010 THE SHOPPING LIST
-0.3010 THE TEMPERATURE OUTSIDE
-0.3010 THE TIME </s>
-0.6021 THE WEATHER LIKE
-0.6021 THE WEATHER TOMORROW
-0.3010 TIME IS IT
-0.3010 TO THE SHOPPING
-0.3010 VACUUM THE HOUSE
-0.3010 WEATHER LIKE </s>
-0.3010 WEATHER TOMORROW </s>
-0.3010 WHAT IS THE
-0.3010 WHAT TIME IS

\end\
